{
  "W1": [
    [
      0.056367427110672,
      -0.8215921521186829,
      -0.6392123699188232,
      -0.044026657938957214,
      0.3051183223724365,
      0.40749624371528625,
      -0.9290542602539062,
      -0.9934669137001038
    ],
    [
      -0.3501054048538208,
      -0.6323345899581909,
      -0.09560651332139969,
      -0.1491733342409134,
      -0.3544290065765381,
      -0.19937759637832642,
      -0.7278936505317688,
      -1.6241734027862549
    ],
    [
      0.19588252902030945,
      -0.21453304588794708,
      0.22447443008422852,
      -0.3478533625602722,
      0.1093970462679863,
      0.0015797553351148963,
      -0.0059196241199970245,
      -0.027563299983739853
    ],
    [
      0.09730041772127151,
      -0.31082311272621155,
      -0.9311543703079224,
      -0.4227537512779236,
      -1.2377009391784668,
      0.6098533868789673,
      0.47640475630760193,
      0.05960030481219292
    ]
  ],
  "b1": [
    0.7253454923629761,
    0.8556886911392212,
    0.562820315361023,
    0.9008235931396484,
    -0.5413083434104919,
    0.35428810119628906,
    -0.4628911018371582,
    0.045777615159749985
  ],
  "W2": [
    [
      0.4888887107372284
    ],
    [
      -0.9671406149864197
    ],
    [
      -1.0812822580337524
    ],
    [
      0.6250404715538025
    ],
    [
      1.157953143119812
    ],
    [
      0.23984146118164062
    ],
    [
      -0.8543576598167419
    ],
    [
      -1.0021063089370728
    ]
  ],
  "b2": [
    0.49316728115081787
  ],
  "features": [
    "adc_value",
    "sipm_mv",
    "temperature_c",
    "pressure_pa"
  ],
  "standardize_mean": [
    277.2791833333333,
    14.442606666667142,
    27.581629999998103,
    101224.18569166667
  ],
  "standardize_std": [
    250.45909018573548,
    18.901130429294216,
    0.9104089977036306,
    457.98533263662944
  ],
  "note": "MLP(4->8 ReLU->1 sigmoid); standardize inputs with mean/std before forward"
}